digraph Tree {
node [shape=box, fontname="helvetica"] ;
edge [fontname="helvetica"] ;
0 [label="x[0] <= 87.0\nentropy = 1.161\nsamples = 17614\nvalue = [9405, 100, 7752, 357]"] ;
1 [label="x[0] <= 65.0\nentropy = 0.821\nsamples = 6410\nvalue = [758, 17, 5325, 310]"] ;
0 -> 1 [labeldistance=2.5, labelangle=45, headlabel="True"] ;
2 [label="x[0] <= 27.5\nentropy = 0.66\nsamples = 3582\nvalue = [159, 14, 3158, 251]"] ;
1 -> 2 ;
3 [label="x[5] <= 339.72\nentropy = 1.392\nsamples = 89\nvalue = [10, 0, 37, 42]"] ;
2 -> 3 ;
4 [label="x[4] <= 0.091\nentropy = 1.438\nsamples = 69\nvalue = [10, 0, 34, 25]"] ;
3 -> 4 ;
5 [label="entropy = 0.0\nsamples = 6\nvalue = [0, 0, 6, 0]"] ;
4 -> 5 ;
6 [label="x[4] <= 2.144\nentropy = 1.471\nsamples = 63\nvalue = [10, 0, 28, 25]"] ;
4 -> 6 ;
7 [label="entropy = 1.45\nsamples = 55\nvalue = [8, 0, 22, 25]"] ;
6 -> 7 ;
8 [label="entropy = 0.811\nsamples = 8\nvalue = [2, 0, 6, 0]"] ;
6 -> 8 ;
9 [label="x[1] <= 0.028\nentropy = 0.61\nsamples = 20\nvalue = [0, 0, 3, 17]"] ;
3 -> 9 ;
10 [label="entropy = 0.0\nsamples = 10\nvalue = [0, 0, 0, 10]"] ;
9 -> 10 ;
11 [label="entropy = 0.881\nsamples = 10\nvalue = [0, 0, 3, 7]"] ;
9 -> 11 ;
12 [label="x[5] <= 339.72\nentropy = 0.614\nsamples = 3493\nvalue = [149, 14, 3121, 209]"] ;
2 -> 12 ;
13 [label="x[1] <= 0.049\nentropy = 0.542\nsamples = 2969\nvalue = [138, 3, 2696, 132]"] ;
12 -> 13 ;
14 [label="x[2] <= 0.0\nentropy = 0.47\nsamples = 613\nvalue = [12, 3, 567, 31]"] ;
13 -> 14 ;
15 [label="entropy = 0.666\nsamples = 212\nvalue = [5, 3, 187, 17]"] ;
14 -> 15 ;
16 [label="entropy = 0.344\nsamples = 401\nvalue = [7, 0, 380, 14]"] ;
14 -> 16 ;
17 [label="x[1] <= 0.333\nentropy = 0.553\nsamples = 2356\nvalue = [126, 0, 2129, 101]"] ;
13 -> 17 ;
18 [label="entropy = 0.517\nsamples = 1899\nvalue = [85, 0, 1732, 82]"] ;
17 -> 18 ;
19 [label="entropy = 0.679\nsamples = 457\nvalue = [41, 0, 397, 19]"] ;
17 -> 19 ;
20 [label="x[3] <= 13.397\nentropy = 0.886\nsamples = 524\nvalue = [11, 11, 425, 77]"] ;
12 -> 20 ;
21 [label="x[1] <= 0.155\nentropy = 0.897\nsamples = 169\nvalue = [2, 0, 125, 42]"] ;
20 -> 21 ;
22 [label="entropy = 0.945\nsamples = 152\nvalue = [2, 0, 108, 42]"] ;
21 -> 22 ;
23 [label="entropy = 0.0\nsamples = 17\nvalue = [0, 0, 17, 0]"] ;
21 -> 23 ;
24 [label="x[3] <= 44.718\nentropy = 0.824\nsamples = 355\nvalue = [9, 11, 300, 35]"] ;
20 -> 24 ;
25 [label="entropy = 0.883\nsamples = 178\nvalue = [2, 11, 147, 18]"] ;
24 -> 25 ;
26 [label="entropy = 0.691\nsamples = 177\nvalue = [7, 0, 153, 17]"] ;
24 -> 26 ;
27 [label="x[2] <= 0.003\nentropy = 0.896\nsamples = 2828\nvalue = [599, 3, 2167, 59]"] ;
1 -> 27 ;
28 [label="x[1] <= 0.027\nentropy = 0.859\nsamples = 2639\nvalue = [501, 3, 2077, 58]"] ;
27 -> 28 ;
29 [label="x[4] <= 2.043\nentropy = 0.633\nsamples = 568\nvalue = [45, 1, 502, 20]"] ;
28 -> 29 ;
30 [label="x[4] <= 0.346\nentropy = 0.555\nsamples = 535\nvalue = [40, 0, 481, 14]"] ;
29 -> 30 ;
31 [label="entropy = 0.335\nsamples = 208\nvalue = [9, 0, 197, 2]"] ;
30 -> 31 ;
32 [label="entropy = 0.674\nsamples = 327\nvalue = [31, 0, 284, 12]"] ;
30 -> 32 ;
33 [label="x[5] <= 88.843\nentropy = 1.427\nsamples = 33\nvalue = [5, 1, 21, 6]"] ;
29 -> 33 ;
34 [label="entropy = 0.439\nsamples = 11\nvalue = [0, 1, 10, 0]"] ;
33 -> 34 ;
35 [label="entropy = 1.497\nsamples = 22\nvalue = [5, 0, 11, 6]"] ;
33 -> 35 ;
36 [label="x[4] <= 1.234\nentropy = 0.897\nsamples = 2071\nvalue = [456, 2, 1575, 38]"] ;
28 -> 36 ;
37 [label="x[2] <= 0.0\nentropy = 0.831\nsamples = 1353\nvalue = [238, 1, 1083, 31]"] ;
36 -> 37 ;
38 [label="entropy = 0.721\nsamples = 671\nvalue = [78, 0, 571, 22]"] ;
37 -> 38 ;
39 [label="entropy = 0.897\nsamples = 682\nvalue = [160, 1, 512, 9]"] ;
37 -> 39 ;
40 [label="x[2] <= 0.0\nentropy = 0.974\nsamples = 718\nvalue = [218, 1, 492, 7]"] ;
36 -> 40 ;
41 [label="entropy = 0.892\nsamples = 312\nvalue = [70, 1, 237, 4]"] ;
40 -> 41 ;
42 [label="entropy = 1.004\nsamples = 406\nvalue = [148, 0, 255, 3]"] ;
40 -> 42 ;
43 [label="x[5] <= 339.72\nentropy = 1.041\nsamples = 189\nvalue = [98, 0, 90, 1]"] ;
27 -> 43 ;
44 [label="x[4] <= 1.019\nentropy = 0.977\nsamples = 141\nvalue = [83, 0, 58, 0]"] ;
43 -> 44 ;
45 [label="x[3] <= 73.658\nentropy = 0.944\nsamples = 127\nvalue = [81, 0, 46, 0]"] ;
44 -> 45 ;
46 [label="entropy = 0.958\nsamples = 121\nvalue = [75, 0, 46, 0]"] ;
45 -> 46 ;
47 [label="entropy = 0.0\nsamples = 6\nvalue = [6, 0, 0, 0]"] ;
45 -> 47 ;
48 [label="x[1] <= 0.302\nentropy = 0.592\nsamples = 14\nvalue = [2, 0, 12, 0]"] ;
44 -> 48 ;
49 [label="entropy = 0.0\nsamples = 8\nvalue = [0, 0, 8, 0]"] ;
48 -> 49 ;
50 [label="entropy = 0.918\nsamples = 6\nvalue = [2, 0, 4, 0]"] ;
48 -> 50 ;
51 [label="x[4] <= 0.057\nentropy = 1.031\nsamples = 48\nvalue = [15, 0, 32, 1]"] ;
43 -> 51 ;
52 [label="x[1] <= 0.009\nentropy = 0.961\nsamples = 13\nvalue = [8, 0, 5, 0]"] ;
51 -> 52 ;
53 [label="entropy = 0.592\nsamples = 7\nvalue = [6, 0, 1, 0]"] ;
52 -> 53 ;
54 [label="entropy = 0.918\nsamples = 6\nvalue = [2, 0, 4, 0]"] ;
52 -> 54 ;
55 [label="x[3] <= 5.719\nentropy = 0.9\nsamples = 35\nvalue = [7, 0, 27, 1]"] ;
51 -> 55 ;
56 [label="entropy = 0.669\nsamples = 16\nvalue = [1, 0, 14, 1]"] ;
55 -> 56 ;
57 [label="entropy = 0.9\nsamples = 19\nvalue = [6, 0, 13, 0]"] ;
55 -> 57 ;
58 [label="x[0] <= 112.0\nentropy = 0.852\nsamples = 11204\nvalue = [8647, 83, 2427, 47]"] ;
0 -> 58 [labeldistance=2.5, labelangle=-45, headlabel="False"] ;
59 [label="x[2] <= 0.003\nentropy = 1.084\nsamples = 2747\nvalue = [1376, 6, 1341, 24]"] ;
58 -> 59 ;
60 [label="x[2] <= 0.0\nentropy = 1.082\nsamples = 2451\nvalue = [1120, 5, 1303, 23]"] ;
59 -> 60 ;
61 [label="x[4] <= 1.193\nentropy = 1.057\nsamples = 657\nvalue = [189, 5, 450, 13]"] ;
60 -> 61 ;
62 [label="x[1] <= 0.347\nentropy = 0.991\nsamples = 337\nvalue = [69, 2, 254, 12]"] ;
61 -> 62 ;
63 [label="entropy = 0.932\nsamples = 291\nvalue = [47, 2, 230, 12]"] ;
62 -> 63 ;
64 [label="entropy = 0.999\nsamples = 46\nvalue = [22, 0, 24, 0]"] ;
62 -> 64 ;
65 [label="x[3] <= 44.718\nentropy = 1.053\nsamples = 320\nvalue = [120, 3, 196, 1]"] ;
61 -> 65 ;
66 [label="entropy = 1.335\nsamples = 13\nvalue = [8, 3, 2, 0]"] ;
65 -> 66 ;
67 [label="entropy = 0.976\nsamples = 307\nvalue = [112, 0, 194, 1]"] ;
65 -> 67 ;
68 [label="x[1] <= 0.008\nentropy = 1.043\nsamples = 1794\nvalue = [931, 0, 853, 10]"] ;
60 -> 68 ;
69 [label="x[4] <= 0.616\nentropy = 0.84\nsamples = 70\nvalue = [12, 0, 56, 2]"] ;
68 -> 69 ;
70 [label="entropy = 0.661\nsamples = 57\nvalue = [7, 0, 49, 1]"] ;
69 -> 70 ;
71 [label="entropy = 1.296\nsamples = 13\nvalue = [5, 0, 7, 1]"] ;
69 -> 71 ;
72 [label="x[1] <= 0.355\nentropy = 1.034\nsamples = 1724\nvalue = [919, 0, 797, 8]"] ;
68 -> 72 ;
73 [label="entropy = 1.041\nsamples = 1545\nvalue = [794, 0, 743, 8]"] ;
72 -> 73 ;
74 [label="entropy = 0.883\nsamples = 179\nvalue = [125, 0, 54, 0]"] ;
72 -> 74 ;
75 [label="x[4] <= 0.273\nentropy = 0.617\nsamples = 296\nvalue = [256, 1, 38, 1]"] ;
59 -> 75 ;
76 [label="x[4] <= 0.013\nentropy = 0.431\nsamples = 234\nvalue = [215, 0, 18, 1]"] ;
75 -> 76 ;
77 [label="x[1] <= 0.02\nentropy = 1.189\nsamples = 12\nvalue = [8, 0, 3, 1]"] ;
76 -> 77 ;
78 [label="entropy = 1.459\nsamples = 6\nvalue = [3, 0, 2, 1]"] ;
77 -> 78 ;
79 [label="entropy = 0.65\nsamples = 6\nvalue = [5, 0, 1, 0]"] ;
77 -> 79 ;
80 [label="x[5] <= 28.355\nentropy = 0.357\nsamples = 222\nvalue = [207, 0, 15, 0]"] ;
76 -> 80 ;
81 [label="entropy = 0.736\nsamples = 29\nvalue = [23, 0, 6, 0]"] ;
80 -> 81 ;
82 [label="entropy = 0.272\nsamples = 193\nvalue = [184, 0, 9, 0]"] ;
80 -> 82 ;
83 [label="x[5] <= 171.76\nentropy = 1.017\nsamples = 62\nvalue = [41, 1, 20, 0]"] ;
75 -> 83 ;
84 [label="x[5] <= 28.355\nentropy = 0.459\nsamples = 31\nvalue = [28, 0, 3, 0]"] ;
83 -> 84 ;
85 [label="entropy = 0.672\nsamples = 17\nvalue = [14, 0, 3, 0]"] ;
84 -> 85 ;
86 [label="entropy = 0.0\nsamples = 14\nvalue = [14, 0, 0, 0]"] ;
84 -> 86 ;
87 [label="x[4] <= 0.699\nentropy = 1.161\nsamples = 31\nvalue = [13, 1, 17, 0]"] ;
83 -> 87 ;
88 [label="entropy = 1.067\nsamples = 23\nvalue = [6, 1, 16, 0]"] ;
87 -> 88 ;
89 [label="entropy = 0.544\nsamples = 8\nvalue = [7, 0, 1, 0]"] ;
87 -> 89 ;
90 [label="x[2] <= 0.0\nentropy = 0.653\nsamples = 8457\nvalue = [7271, 77, 1086, 23]"] ;
58 -> 90 ;
91 [label="x[0] <= 188.5\nentropy = 1.136\nsamples = 1193\nvalue = [809, 50, 325, 9]"] ;
90 -> 91 ;
92 [label="x[1] <= 0.005\nentropy = 1.221\nsamples = 729\nvalue = [428, 32, 265, 4]"] ;
91 -> 92 ;
93 [label="x[5] <= 271.746\nentropy = 1.698\nsamples = 55\nvalue = [11, 22, 20, 2]"] ;
92 -> 93 ;
94 [label="entropy = 0.845\nsamples = 11\nvalue = [3, 0, 8, 0]"] ;
93 -> 94 ;
95 [label="entropy = 1.661\nsamples = 44\nvalue = [8, 22, 12, 2]"] ;
93 -> 95 ;
96 [label="x[4] <= 0.06\nentropy = 1.074\nsamples = 674\nvalue = [417, 10, 245, 2]"] ;
92 -> 96 ;
97 [label="entropy = 1.599\nsamples = 28\nvalue = [9, 4, 14, 1]"] ;
96 -> 97 ;
98 [label="entropy = 1.026\nsamples = 646\nvalue = [408, 6, 231, 1]"] ;
96 -> 98 ;
99 [label="x[4] <= 0.268\nentropy = 0.867\nsamples = 464\nvalue = [381, 18, 60, 5]"] ;
91 -> 99 ;
100 [label="x[1] <= 0.318\nentropy = 1.161\nsamples = 123\nvalue = [85, 3, 31, 4]"] ;
99 -> 100 ;
101 [label="entropy = 1.208\nsamples = 106\nvalue = [69, 2, 31, 4]"] ;
100 -> 101 ;
102 [label="entropy = 0.323\nsamples = 17\nvalue = [16, 1, 0, 0]"] ;
100 -> 102 ;
103 [label="x[5] <= 171.76\nentropy = 0.703\nsamples = 341\nvalue = [296, 15, 29, 1]"] ;
99 -> 103 ;
104 [label="entropy = 0.455\nsamples = 157\nvalue = [142, 0, 15, 0]"] ;
103 -> 104 ;
105 [label="entropy = 0.833\nsamples = 184\nvalue = [154, 15, 14, 1]"] ;
103 -> 105 ;
106 [label="x[0] <= 141.5\nentropy = 0.539\nsamples = 7264\nvalue = [6462, 27, 761, 14]"] ;
90 -> 106 ;
107 [label="x[2] <= 0.003\nentropy = 0.755\nsamples = 1822\nvalue = [1449, 2, 368, 3]"] ;
106 -> 107 ;
108 [label="x[1] <= 0.01\nentropy = 0.813\nsamples = 1500\nvalue = [1139, 0, 358, 3]"] ;
107 -> 108 ;
109 [label="entropy = 0.962\nsamples = 57\nvalue = [22, 0, 35, 0]"] ;
108 -> 109 ;
110 [label="entropy = 0.788\nsamples = 1443\nvalue = [1117, 0, 323, 3]"] ;
108 -> 110 ;
111 [label="x[3] <= 13.397\nentropy = 0.254\nsamples = 322\nvalue = [310, 2, 10, 0]"] ;
107 -> 111 ;
112 [label="entropy = 0.138\nsamples = 235\nvalue = [231, 1, 3, 0]"] ;
111 -> 112 ;
113 [label="entropy = 0.493\nsamples = 87\nvalue = [79, 1, 7, 0]"] ;
111 -> 113 ;
114 [label="x[2] <= 0.003\nentropy = 0.437\nsamples = 5442\nvalue = [5013, 25, 393, 11]"] ;
106 -> 114 ;
115 [label="x[1] <= 0.001\nentropy = 0.468\nsamples = 4561\nvalue = [4155, 14, 381, 11]"] ;
114 -> 115 ;
116 [label="entropy = 1.071\nsamples = 52\nvalue = [19, 0, 32, 1]"] ;
115 -> 116 ;
117 [label="entropy = 0.445\nsamples = 4509\nvalue = [4136, 14, 349, 10]"] ;
115 -> 117 ;
118 [label="x[1] <= 0.165\nentropy = 0.201\nsamples = 881\nvalue = [858, 11, 12, 0]"] ;
114 -> 118 ;
119 [label="entropy = 0.191\nsamples = 641\nvalue = [625, 11, 5, 0]"] ;
118 -> 119 ;
120 [label="entropy = 0.19\nsamples = 240\nvalue = [233, 0, 7, 0]"] ;
118 -> 120 ;
}
